#pragma once
#include <cstdarg>
namespace Eloquent {
    namespace ML {
        namespace Port {
            class RandomForest {
                public:
                    /**
                    * Predict class for features vector
                    */
                    int predict(float *x) {
                        uint8_t votes[5] = { 0 };
                        // tree #1
                        if (x[98] <= 0.19500000029802322) {
                            if (x[163] <= -0.4050000011920929) {
                                if (x[128] <= 0.17500000447034836) {
                                    votes[0] += 1;
                                }

                                else {
                                    if (x[218] <= 0.07999999728053808) {
                                        votes[0] += 1;
                                    }

                                    else {
                                        votes[2] += 1;
                                    }
                                }
                            }

                            else {
                                if (x[106] <= -0.4650000035762787) {
                                    if (x[37] <= -0.20000000298023224) {
                                        if (x[209] <= 0.004999995231628418) {
                                            votes[0] += 1;
                                        }

                                        else {
                                            votes[2] += 1;
                                        }
                                    }

                                    else {
                                        votes[0] += 1;
                                    }
                                }

                                else {
                                    if (x[118] <= -0.5949999988079071) {
                                        if (x[190] <= -0.23500000685453415) {
                                            votes[2] += 1;
                                        }

                                        else {
                                            votes[0] += 1;
                                        }
                                    }

                                    else {
                                        if (x[214] <= -0.5949999988079071) {
                                            if (x[85] <= -0.375) {
                                                votes[2] += 1;
                                            }

                                            else {
                                                votes[0] += 1;
                                            }
                                        }

                                        else {
                                            if (x[240] <= -64.79000091552734) {
                                                votes[0] += 1;
                                            }

                                            else {
                                                if (x[69] <= -0.8300000131130219) {
                                                    votes[1] += 1;
                                                }

                                                else {
                                                    votes[2] += 1;
                                                }
                                            }
                                        }
                                    }
                                }
                            }
                        }

                        else {
                            if (x[89] <= 0.4650000035762787) {
                                if (x[213] <= -0.8349999785423279) {
                                    if (x[174] <= -0.8349999785423279) {
                                        if (x[239] <= 0.22999999672174454) {
                                            if (x[199] <= -0.625) {
                                                votes[2] += 1;
                                            }

                                            else {
                                                votes[0] += 1;
                                            }
                                        }

                                        else {
                                            if (x[135] <= -0.804999977350235) {
                                                votes[4] += 1;
                                            }

                                            else {
                                                if (x[155] <= 0.24000000208616257) {
                                                    votes[0] += 1;
                                                }

                                                else {
                                                    votes[2] += 1;
                                                }
                                            }
                                        }
                                    }

                                    else {
                                        if (x[134] <= 0.17999999970197678) {
                                            if (x[67] <= -0.5750000029802322) {
                                                votes[2] += 1;
                                            }

                                            else {
                                                votes[0] += 1;
                                            }
                                        }

                                        else {
                                            if (x[50] <= 0.45499999821186066) {
                                                if (x[168] <= -0.8550000190734863) {
                                                    if (x[109] <= -0.13999999687075615) {
                                                        votes[4] += 1;
                                                    }

                                                    else {
                                                        if (x[15] <= -0.8250000178813934) {
                                                            votes[0] += 1;
                                                        }

                                                        else {
                                                            votes[2] += 1;
                                                        }
                                                    }
                                                }

                                                else {
                                                    if (x[90] <= -0.6100000143051147) {
                                                        if (x[174] <= -0.824999988079071) {
                                                            if (x[204] <= -0.8299999833106995) {
                                                                votes[4] += 1;
                                                            }

                                                            else {
                                                                votes[2] += 1;
                                                            }
                                                        }

                                                        else {
                                                            votes[2] += 1;
                                                        }
                                                    }

                                                    else {
                                                        votes[0] += 1;
                                                    }
                                                }
                                            }

                                            else {
                                                votes[1] += 1;
                                            }
                                        }
                                    }
                                }

                                else {
                                    if (x[188] <= 0.1550000011920929) {
                                        if (x[205] <= -0.2749999985098839) {
                                            votes[2] += 1;
                                        }

                                        else {
                                            votes[0] += 1;
                                        }
                                    }

                                    else {
                                        if (x[77] <= 0.14500000327825546) {
                                            votes[0] += 1;
                                        }

                                        else {
                                            if (x[56] <= 0.5149999856948853) {
                                                if (x[71] <= 0.12000000104308128) {
                                                    votes[0] += 1;
                                                }

                                                else {
                                                    if (x[144] <= -0.8449999988079071) {
                                                        if (x[231] <= -0.8449999988079071) {
                                                            if (x[46] <= -0.24000000953674316) {
                                                                votes[2] += 1;
                                                            }

                                                            else {
                                                                votes[4] += 1;
                                                            }
                                                        }

                                                        else {
                                                            votes[2] += 1;
                                                        }
                                                    }

                                                    else {
                                                        if (x[78] <= -0.8449999988079071) {
                                                            if (x[102] <= -0.8449999988079071) {
                                                                votes[4] += 1;
                                                            }

                                                            else {
                                                                votes[2] += 1;
                                                            }
                                                        }

                                                        else {
                                                            votes[2] += 1;
                                                        }
                                                    }
                                                }
                                            }

                                            else {
                                                if (x[230] <= 0.4099999964237213) {
                                                    votes[2] += 1;
                                                }

                                                else {
                                                    votes[1] += 1;
                                                }
                                            }
                                        }
                                    }
                                }
                            }

                            else {
                                if (x[13] <= -0.10500000044703484) {
                                    if (x[128] <= 0.35999999940395355) {
                                        if (x[230] <= 0.5849999934434891) {
                                            votes[2] += 1;
                                        }

                                        else {
                                            votes[1] += 1;
                                        }
                                    }

                                    else {
                                        if (x[73] <= -0.08500000089406967) {
                                            votes[1] += 1;
                                        }

                                        else {
                                            if (x[38] <= 1.0049999952316284) {
                                                votes[1] += 1;
                                            }

                                            else {
                                                if (x[39] <= -0.6850000023841858) {
                                                    votes[1] += 1;
                                                }

                                                else {
                                                    votes[3] += 1;
                                                }
                                            }
                                        }
                                    }
                                }

                                else {
                                    if (x[240] <= -36.34499931335449) {
                                        if (x[179] <= 0.3800000101327896) {
                                            if (x[66] <= -0.824999988079071) {
                                                votes[0] += 1;
                                            }

                                            else {
                                                votes[2] += 1;
                                            }
                                        }

                                        else {
                                            if (x[221] <= 0.16500000562518835) {
                                                votes[0] += 1;
                                            }

                                            else {
                                                votes[1] += 1;
                                            }
                                        }
                                    }

                                    else {
                                        votes[3] += 1;
                                    }
                                }
                            }
                        }

                        // tree #2
                        if (x[240] <= -65.10000228881836) {
                            if (x[215] <= 0.26500000059604645) {
                                if (x[95] <= 0.26500000059604645) {
                                    votes[0] += 1;
                                }

                                else {
                                    if (x[25] <= -0.16499999910593033) {
                                        if (x[27] <= -0.8600000143051147) {
                                            votes[0] += 1;
                                        }

                                        else {
                                            votes[4] += 1;
                                        }
                                    }

                                    else {
                                        votes[0] += 1;
                                    }
                                }
                            }

                            else {
                                if (x[62] <= 0.2149999961256981) {
                                    votes[0] += 1;
                                }

                                else {
                                    votes[4] += 1;
                                }
                            }
                        }

                        else {
                            if (x[179] <= 0.4650000035762787) {
                                if (x[167] <= 0.5399999916553497) {
                                    if (x[174] <= -1.0550000071525574) {
                                        votes[1] += 1;
                                    }

                                    else {
                                        votes[2] += 1;
                                    }
                                }

                                else {
                                    votes[1] += 1;
                                }
                            }

                            else {
                                if (x[178] <= -0.10500000044703484) {
                                    if (x[59] <= 0.32999999821186066) {
                                        if (x[126] <= -0.6700000166893005) {
                                            votes[2] += 1;
                                        }

                                        else {
                                            votes[1] += 1;
                                        }
                                    }

                                    else {
                                        if (x[26] <= 0.3449999988079071) {
                                            if (x[98] <= 0.4649999886751175) {
                                                votes[2] += 1;
                                            }

                                            else {
                                                votes[1] += 1;
                                            }
                                        }

                                        else {
                                            if (x[187] <= -0.08500000089406967) {
                                                votes[1] += 1;
                                            }

                                            else {
                                                if (x[161] <= 1.0049999952316284) {
                                                    votes[1] += 1;
                                                }

                                                else {
                                                    if (x[55] <= -0.11500000208616257) {
                                                        votes[1] += 1;
                                                    }

                                                    else {
                                                        votes[3] += 1;
                                                    }
                                                }
                                            }
                                        }
                                    }
                                }

                                else {
                                    if (x[74] <= 0.9850000143051147) {
                                        if (x[80] <= 0.39500001072883606) {
                                            if (x[222] <= -0.9650000035762787) {
                                                votes[1] += 1;
                                            }

                                            else {
                                                votes[2] += 1;
                                            }
                                        }

                                        else {
                                            if (x[211] <= -0.044999999925494194) {
                                                votes[1] += 1;
                                            }

                                            else {
                                                if (x[10] <= -0.08499999716877937) {
                                                    votes[1] += 1;
                                                }

                                                else {
                                                    votes[3] += 1;
                                                }
                                            }
                                        }
                                    }

                                    else {
                                        if (x[83] <= 0.9750000238418579) {
                                            votes[1] += 1;
                                        }

                                        else {
                                            if (x[186] <= -0.5250000059604645) {
                                                votes[1] += 1;
                                            }

                                            else {
                                                votes[3] += 1;
                                            }
                                        }
                                    }
                                }
                            }
                        }

                        // tree #3
                        if (x[173] <= 0.19500000029802322) {
                            if (x[40] <= -0.4050000011920929) {
                                if (x[200] <= 0.17500000447034836) {
                                    votes[0] += 1;
                                }

                                else {
                                    votes[2] += 1;
                                }
                            }

                            else {
                                if (x[184] <= -0.42499999701976776) {
                                    if (x[118] <= -0.30000000447034836) {
                                        if (x[94] <= 0.07499999832361937) {
                                            votes[2] += 1;
                                        }

                                        else {
                                            votes[0] += 1;
                                        }
                                    }

                                    else {
                                        votes[0] += 1;
                                    }
                                }

                                else {
                                    if (x[28] <= -0.5849999785423279) {
                                        if (x[100] <= -0.26500000059604645) {
                                            votes[2] += 1;
                                        }

                                        else {
                                            votes[0] += 1;
                                        }
                                    }

                                    else {
                                        if (x[234] <= -0.0400000000372529) {
                                            if (x[242] <= 13.579999923706055) {
                                                votes[0] += 1;
                                            }

                                            else {
                                                votes[2] += 1;
                                            }
                                        }

                                        else {
                                            if (x[184] <= 0.014999999664723873) {
                                                votes[1] += 1;
                                            }

                                            else {
                                                votes[0] += 1;
                                            }
                                        }
                                    }
                                }
                            }
                        }

                        else {
                            if (x[77] <= 0.4650000035762787) {
                                if (x[18] <= -0.8349999785423279) {
                                    if (x[126] <= -0.8349999785423279) {
                                        if (x[113] <= 0.23499999940395355) {
                                            if (x[235] <= -0.35999999940395355) {
                                                if (x[152] <= 0.14499999955296516) {
                                                    votes[0] += 1;
                                                }

                                                else {
                                                    votes[2] += 1;
                                                }
                                            }

                                            else {
                                                votes[0] += 1;
                                            }
                                        }

                                        else {
                                            if (x[232] <= -0.25999999791383743) {
                                                votes[2] += 1;
                                            }

                                            else {
                                                votes[4] += 1;
                                            }
                                        }
                                    }

                                    else {
                                        if (x[241] <= -19.739999771118164) {
                                            if (x[188] <= 0.5699999928474426) {
                                                votes[2] += 1;
                                            }

                                            else {
                                                votes[1] += 1;
                                            }
                                        }

                                        else {
                                            if (x[149] <= 0.23999999463558197) {
                                                votes[0] += 1;
                                            }

                                            else {
                                                if (x[43] <= -0.14000000059604645) {
                                                    votes[4] += 1;
                                                }

                                                else {
                                                    if (x[62] <= -0.14500001072883606) {
                                                        votes[0] += 1;
                                                    }

                                                    else {
                                                        votes[1] += 1;
                                                    }
                                                }
                                            }
                                        }
                                    }
                                }

                                else {
                                    if (x[113] <= 0.14999999850988388) {
                                        if (x[241] <= -9.744999706745148) {
                                            votes[2] += 1;
                                        }

                                        else {
                                            votes[0] += 1;
                                        }
                                    }

                                    else {
                                        if (x[240] <= -57.260000228881836) {
                                            if (x[140] <= 0.11499999836087227) {
                                                votes[0] += 1;
                                            }

                                            else {
                                                if (x[240] <= -66.18500137329102) {
                                                    votes[4] += 1;
                                                }

                                                else {
                                                    votes[2] += 1;
                                                }
                                            }
                                        }

                                        else {
                                            votes[1] += 1;
                                        }
                                    }
                                }
                            }

                            else {
                                if (x[31] <= -0.10500000044703484) {
                                    if (x[242] <= 42.69499969482422) {
                                        votes[2] += 1;
                                    }

                                    else {
                                        if (x[16] <= -0.0950000025331974) {
                                            votes[1] += 1;
                                        }

                                        else {
                                            if (x[208] <= -0.08999999985098839) {
                                                votes[1] += 1;
                                            }

                                            else {
                                                if (x[82] <= -0.10500000044703484) {
                                                    votes[1] += 1;
                                                }

                                                else {
                                                    votes[3] += 1;
                                                }
                                            }
                                        }
                                    }
                                }

                                else {
                                    if (x[241] <= -10.5) {
                                        if (x[134] <= 0.35500000417232513) {
                                            votes[2] += 1;
                                        }

                                        else {
                                            votes[1] += 1;
                                        }
                                    }

                                    else {
                                        if (x[144] <= -0.6500000059604645) {
                                            votes[0] += 1;
                                        }

                                        else {
                                            votes[3] += 1;
                                        }
                                    }
                                }
                            }
                        }

                        // tree #4
                        if (x[197] <= 0.1850000023841858) {
                            if (x[240] <= -65.15499877929688) {
                                votes[0] += 1;
                            }

                            else {
                                if (x[128] <= 0.6049999892711639) {
                                    votes[2] += 1;
                                }

                                else {
                                    votes[1] += 1;
                                }
                            }
                        }

                        else {
                            if (x[137] <= 0.4749999940395355) {
                                if (x[241] <= -19.769999504089355) {
                                    if (x[240] <= -57.60999870300293) {
                                        votes[2] += 1;
                                    }

                                    else {
                                        votes[1] += 1;
                                    }
                                }

                                else {
                                    if (x[50] <= 0.22999999672174454) {
                                        votes[0] += 1;
                                    }

                                    else {
                                        if (x[218] <= 0.4350000023841858) {
                                            if (x[187] <= -0.03999999910593033) {
                                                votes[4] += 1;
                                            }

                                            else {
                                                votes[0] += 1;
                                            }
                                        }

                                        else {
                                            votes[1] += 1;
                                        }
                                    }
                                }
                            }

                            else {
                                if (x[142] <= -0.10500000044703484) {
                                    if (x[241] <= -10.299999952316284) {
                                        if (x[152] <= 0.33500000834465027) {
                                            if (x[31] <= -0.5199999958276749) {
                                                votes[2] += 1;
                                            }

                                            else {
                                                votes[1] += 1;
                                            }
                                        }

                                        else {
                                            votes[1] += 1;
                                        }
                                    }

                                    else {
                                        votes[3] += 1;
                                    }
                                }

                                else {
                                    if (x[241] <= -10.599999904632568) {
                                        if (x[35] <= 0.39000000059604645) {
                                            votes[2] += 1;
                                        }

                                        else {
                                            votes[1] += 1;
                                        }
                                    }

                                    else {
                                        if (x[230] <= 0.4400000087916851) {
                                            votes[0] += 1;
                                        }

                                        else {
                                            votes[3] += 1;
                                        }
                                    }
                                }
                            }
                        }

                        // tree #5
                        if (x[230] <= 0.19500000029802322) {
                            if (x[34] <= -0.33500000834465027) {
                                if (x[169] <= -0.2750000059604645) {
                                    if (x[232] <= -0.09999999776482582) {
                                        votes[2] += 1;
                                    }

                                    else {
                                        votes[0] += 1;
                                    }
                                }

                                else {
                                    votes[0] += 1;
                                }
                            }

                            else {
                                if (x[233] <= 0.1850000023841858) {
                                    if (x[240] <= -64.86000061035156) {
                                        votes[0] += 1;
                                    }

                                    else {
                                        votes[2] += 1;
                                    }
                                }

                                else {
                                    if (x[73] <= -0.19999999552965164) {
                                        if (x[226] <= 0.020000001415610313) {
                                            votes[2] += 1;
                                        }

                                        else {
                                            votes[0] += 1;
                                        }
                                    }

                                    else {
                                        if (x[179] <= 0.19500000029802322) {
                                            if (x[112] <= -0.6400000154972076) {
                                                votes[2] += 1;
                                            }

                                            else {
                                                votes[0] += 1;
                                            }
                                        }

                                        else {
                                            if (x[116] <= 0.14000000432133675) {
                                                votes[0] += 1;
                                            }

                                            else {
                                                votes[2] += 1;
                                            }
                                        }
                                    }
                                }
                            }
                        }

                        else {
                            if (x[241] <= -9.230000019073486) {
                                if (x[230] <= 0.4650000035762787) {
                                    if (x[141] <= -0.8349999785423279) {
                                        if (x[177] <= -0.8349999785423279) {
                                            if (x[241] <= -19.170000076293945) {
                                                votes[2] += 1;
                                            }

                                            else {
                                                votes[4] += 1;
                                            }
                                        }

                                        else {
                                            if (x[186] <= -0.5850000083446503) {
                                                if (x[207] <= -0.8449999988079071) {
                                                    if (x[46] <= -0.22499999403953552) {
                                                        votes[2] += 1;
                                                    }

                                                    else {
                                                        votes[4] += 1;
                                                    }
                                                }

                                                else {
                                                    votes[2] += 1;
                                                }
                                            }

                                            else {
                                                votes[1] += 1;
                                            }
                                        }
                                    }

                                    else {
                                        if (x[209] <= 0.5199999809265137) {
                                            if (x[9] <= -0.8449999988079071) {
                                                if (x[213] <= -0.8449999988079071) {
                                                    if (x[232] <= -0.23999999463558197) {
                                                        votes[2] += 1;
                                                    }

                                                    else {
                                                        votes[4] += 1;
                                                    }
                                                }

                                                else {
                                                    votes[2] += 1;
                                                }
                                            }

                                            else {
                                                votes[2] += 1;
                                            }
                                        }

                                        else {
                                            if (x[80] <= 0.4999999850988388) {
                                                votes[2] += 1;
                                            }

                                            else {
                                                votes[1] += 1;
                                            }
                                        }
                                    }
                                }

                                else {
                                    if (x[119] <= 0.375) {
                                        if (x[165] <= -0.6199999898672104) {
                                            votes[2] += 1;
                                        }

                                        else {
                                            votes[1] += 1;
                                        }
                                    }

                                    else {
                                        if (x[196] <= -0.7100000083446503) {
                                            if (x[143] <= 0.5599999874830246) {
                                                votes[2] += 1;
                                            }

                                            else {
                                                votes[1] += 1;
                                            }
                                        }

                                        else {
                                            votes[1] += 1;
                                        }
                                    }
                                }
                            }

                            else {
                                if (x[161] <= 0.635000005364418) {
                                    votes[0] += 1;
                                }

                                else {
                                    votes[3] += 1;
                                }
                            }
                        }

                        // tree #6
                        if (x[218] <= 0.1850000023841858) {
                            if (x[240] <= -64.875) {
                                votes[0] += 1;
                            }

                            else {
                                if (x[231] <= -0.6149999797344208) {
                                    votes[2] += 1;
                                }

                                else {
                                    votes[1] += 1;
                                }
                            }
                        }

                        else {
                            if (x[134] <= 0.4650000035762787) {
                                if (x[54] <= -0.8349999785423279) {
                                    if (x[153] <= -0.8349999785423279) {
                                        if (x[155] <= 0.21000000089406967) {
                                            votes[0] += 1;
                                        }

                                        else {
                                            if (x[195] <= -0.7999999821186066) {
                                                if (x[175] <= -0.35999999195337296) {
                                                    votes[2] += 1;
                                                }

                                                else {
                                                    votes[4] += 1;
                                                }
                                            }

                                            else {
                                                if (x[136] <= -0.48000000417232513) {
                                                    votes[2] += 1;
                                                }

                                                else {
                                                    if (x[173] <= 0.2900000065565109) {
                                                        votes[0] += 1;
                                                    }

                                                    else {
                                                        votes[1] += 1;
                                                    }
                                                }
                                            }
                                        }
                                    }

                                    else {
                                        if (x[164] <= 0.14500000327825546) {
                                            votes[0] += 1;
                                        }

                                        else {
                                            if (x[93] <= -0.4599999934434891) {
                                                if (x[240] <= -65.71500015258789) {
                                                    if (x[113] <= 0.24000000208616257) {
                                                        votes[0] += 1;
                                                    }

                                                    else {
                                                        votes[4] += 1;
                                                    }
                                                }

                                                else {
                                                    votes[2] += 1;
                                                }
                                            }

                                            else {
                                                votes[1] += 1;
                                            }
                                        }
                                    }
                                }

                                else {
                                    if (x[241] <= -19.75) {
                                        if (x[113] <= 0.5250000059604645) {
                                            votes[2] += 1;
                                        }

                                        else {
                                            votes[1] += 1;
                                        }
                                    }

                                    else {
                                        if (x[167] <= 0.26500000059604645) {
                                            votes[0] += 1;
                                        }

                                        else {
                                            if (x[200] <= 0.4399999976158142) {
                                                if (x[47] <= 0.03999999910593033) {
                                                    votes[0] += 1;
                                                }

                                                else {
                                                    votes[4] += 1;
                                                }
                                            }

                                            else {
                                                votes[1] += 1;
                                            }
                                        }
                                    }
                                }
                            }

                            else {
                                if (x[112] <= -0.10500000044703484) {
                                    if (x[170] <= 0.36500000953674316) {
                                        if (x[164] <= 0.39499999582767487) {
                                            votes[2] += 1;
                                        }

                                        else {
                                            votes[1] += 1;
                                        }
                                    }

                                    else {
                                        if (x[55] <= -0.0950000025331974) {
                                            votes[1] += 1;
                                        }

                                        else {
                                            if (x[32] <= 1.0) {
                                                votes[1] += 1;
                                            }

                                            else {
                                                if (x[128] <= 0.9699999988079071) {
                                                    votes[1] += 1;
                                                }

                                                else {
                                                    votes[3] += 1;
                                                }
                                            }
                                        }
                                    }
                                }

                                else {
                                    if (x[241] <= -10.539999961853027) {
                                        votes[1] += 1;
                                    }

                                    else {
                                        votes[3] += 1;
                                    }
                                }
                            }
                        }

                        // tree #7
                        if (x[224] <= 0.19500000029802322) {
                            if (x[25] <= -0.39499999582767487) {
                                if (x[242] <= 10.34499979019165) {
                                    votes[0] += 1;
                                }

                                else {
                                    votes[2] += 1;
                                }
                            }

                            else {
                                if (x[40] <= -0.4950000047683716) {
                                    if (x[43] <= -0.3100000023841858) {
                                        votes[2] += 1;
                                    }

                                    else {
                                        votes[0] += 1;
                                    }
                                }

                                else {
                                    if (x[10] <= -0.574999988079071) {
                                        if (x[7] <= -0.4300000071525574) {
                                            votes[2] += 1;
                                        }

                                        else {
                                            votes[0] += 1;
                                        }
                                    }

                                    else {
                                        if (x[118] <= -0.4650000035762787) {
                                            if (x[193] <= -0.24000000208616257) {
                                                votes[2] += 1;
                                            }

                                            else {
                                                votes[0] += 1;
                                            }
                                        }

                                        else {
                                            if (x[80] <= 1.1850000023841858) {
                                                if (x[157] <= -0.6050000190734863) {
                                                    if (x[100] <= -0.15499999932944775) {
                                                        votes[2] += 1;
                                                    }

                                                    else {
                                                        votes[0] += 1;
                                                    }
                                                }

                                                else {
                                                    if (x[221] <= 0.20499999821186066) {
                                                        votes[0] += 1;
                                                    }

                                                    else {
                                                        if (x[70] <= -0.45500001311302185) {
                                                            votes[2] += 1;
                                                        }

                                                        else {
                                                            if (x[166] <= -0.4399999976158142) {
                                                                votes[2] += 1;
                                                            }

                                                            else {
                                                                votes[0] += 1;
                                                            }
                                                        }
                                                    }
                                                }
                                            }

                                            else {
                                                votes[1] += 1;
                                            }
                                        }
                                    }
                                }
                            }
                        }

                        else {
                            if (x[50] <= 0.4650000035762787) {
                                if (x[69] <= -0.8349999785423279) {
                                    if (x[33] <= -0.8349999785423279) {
                                        if (x[14] <= 0.24499999731779099) {
                                            if (x[184] <= -0.5249999910593033) {
                                                votes[2] += 1;
                                            }

                                            else {
                                                if (x[241] <= -6.689999997615814) {
                                                    if (x[133] <= -0.2199999988079071) {
                                                        votes[2] += 1;
                                                    }

                                                    else {
                                                        votes[4] += 1;
                                                    }
                                                }

                                                else {
                                                    votes[0] += 1;
                                                }
                                            }
                                        }

                                        else {
                                            if (x[108] <= -0.8149999976158142) {
                                                if (x[217] <= -0.024999999441206455) {
                                                    votes[4] += 1;
                                                }

                                                else {
                                                    votes[0] += 1;
                                                }
                                            }

                                            else {
                                                if (x[45] <= -0.8050000071525574) {
                                                    votes[0] += 1;
                                                }

                                                else {
                                                    votes[2] += 1;
                                                }
                                            }
                                        }
                                    }

                                    else {
                                        if (x[71] <= 0.19500000029802322) {
                                            votes[0] += 1;
                                        }

                                        else {
                                            if (x[200] <= 0.5399999916553497) {
                                                if (x[165] <= -0.8349999785423279) {
                                                    if (x[150] <= -0.8349999785423279) {
                                                        if (x[96] <= -0.8299999833106995) {
                                                            votes[4] += 1;
                                                        }

                                                        else {
                                                            if (x[129] <= -1.6899999380111694) {
                                                                votes[0] += 1;
                                                            }

                                                            else {
                                                                votes[2] += 1;
                                                            }
                                                        }
                                                    }

                                                    else {
                                                        votes[2] += 1;
                                                    }
                                                }

                                                else {
                                                    if (x[95] <= -0.0949999988079071) {
                                                        votes[0] += 1;
                                                    }

                                                    else {
                                                        votes[2] += 1;
                                                    }
                                                }
                                            }

                                            else {
                                                votes[1] += 1;
                                            }
                                        }
                                    }
                                }

                                else {
                                    if (x[92] <= 0.1550000011920929) {
                                        if (x[172] <= -0.5150000005960464) {
                                            votes[2] += 1;
                                        }

                                        else {
                                            votes[0] += 1;
                                        }
                                    }

                                    else {
                                        if (x[191] <= 0.5099999904632568) {
                                            if (x[155] <= 0.12000000476837158) {
                                                votes[0] += 1;
                                            }

                                            else {
                                                if (x[241] <= -17.359999656677246) {
                                                    if (x[90] <= -0.35499998554587364) {
                                                        votes[2] += 1;
                                                    }

                                                    else {
                                                        votes[1] += 1;
                                                    }
                                                }

                                                else {
                                                    votes[4] += 1;
                                                }
                                            }
                                        }

                                        else {
                                            votes[1] += 1;
                                        }
                                    }
                                }
                            }

                            else {
                                if (x[52] <= -0.10500000044703484) {
                                    if (x[227] <= 0.35500000417232513) {
                                        if (x[145] <= -0.6150000095367432) {
                                            votes[2] += 1;
                                        }

                                        else {
                                            votes[1] += 1;
                                        }
                                    }

                                    else {
                                        if (x[109] <= -0.0950000025331974) {
                                            votes[1] += 1;
                                        }

                                        else {
                                            if (x[56] <= 1.0149999856948853) {
                                                votes[1] += 1;
                                            }

                                            else {
                                                if (x[176] <= 0.949999988079071) {
                                                    votes[1] += 1;
                                                }

                                                else {
                                                    votes[3] += 1;
                                                }
                                            }
                                        }
                                    }
                                }

                                else {
                                    if (x[238] <= -0.10500000044703484) {
                                        if (x[125] <= 0.4650000035762787) {
                                            if (x[39] <= -1.1199999749660492) {
                                                votes[0] += 1;
                                            }

                                            else {
                                                votes[2] += 1;
                                            }
                                        }

                                        else {
                                            if (x[238] <= -0.1249999962747097) {
                                                votes[1] += 1;
                                            }

                                            else {
                                                if (x[212] <= 0.9549999833106995) {
                                                    votes[1] += 1;
                                                }

                                                else {
                                                    votes[3] += 1;
                                                }
                                            }
                                        }
                                    }

                                    else {
                                        if (x[148] <= -0.13499999791383743) {
                                            if (x[161] <= 0.4749999940395355) {
                                                votes[2] += 1;
                                            }

                                            else {
                                                votes[1] += 1;
                                            }
                                        }

                                        else {
                                            if (x[180] <= -0.7100000083446503) {
                                                votes[1] += 1;
                                            }

                                            else {
                                                votes[3] += 1;
                                            }
                                        }
                                    }
                                }
                            }
                        }

                        // tree #8
                        if (x[197] <= 0.19500000029802322) {
                            if (x[127] <= -0.2750000059604645) {
                                if (x[200] <= 0.1550000011920929) {
                                    if (x[240] <= -65.125) {
                                        votes[0] += 1;
                                    }

                                    else {
                                        votes[2] += 1;
                                    }
                                }

                                else {
                                    if (x[98] <= 0.16499999910593033) {
                                        votes[0] += 1;
                                    }

                                    else {
                                        votes[2] += 1;
                                    }
                                }
                            }

                            else {
                                if (x[241] <= -10.839999794960022) {
                                    votes[2] += 1;
                                }

                                else {
                                    votes[0] += 1;
                                }
                            }
                        }

                        else {
                            if (x[240] <= -35.135000228881836) {
                                if (x[77] <= 0.4650000035762787) {
                                    if (x[168] <= -0.8349999785423279) {
                                        if (x[198] <= -0.8349999785423279) {
                                            if (x[140] <= 0.23499999940395355) {
                                                if (x[157] <= -0.47999998927116394) {
                                                    votes[2] += 1;
                                                }

                                                else {
                                                    votes[0] += 1;
                                                }
                                            }

                                            else {
                                                if (x[240] <= -65.67000198364258) {
                                                    votes[4] += 1;
                                                }

                                                else {
                                                    votes[2] += 1;
                                                }
                                            }
                                        }

                                        else {
                                            if (x[179] <= 0.16499999910593033) {
                                                votes[0] += 1;
                                            }

                                            else {
                                                if (x[242] <= 44.060001373291016) {
                                                    if (x[139] <= -0.04499999899417162) {
                                                        if (x[0] <= -0.8449999988079071) {
                                                            if (x[97] <= -0.26000000536441803) {
                                                                votes[2] += 1;
                                                            }

                                                            else {
                                                                votes[4] += 1;
                                                            }
                                                        }

                                                        else {
                                                            votes[2] += 1;
                                                        }
                                                    }

                                                    else {
                                                        votes[0] += 1;
                                                    }
                                                }

                                                else {
                                                    votes[1] += 1;
                                                }
                                            }
                                        }
                                    }

                                    else {
                                        if (x[80] <= 0.13499999791383743) {
                                            votes[0] += 1;
                                        }

                                        else {
                                            if (x[197] <= 0.5) {
                                                if (x[113] <= 0.06500000320374966) {
                                                    votes[0] += 1;
                                                }

                                                else {
                                                    if (x[195] <= -0.8849999904632568) {
                                                        if (x[177] <= -0.8300000131130219) {
                                                            votes[4] += 1;
                                                        }

                                                        else {
                                                            votes[2] += 1;
                                                        }
                                                    }

                                                    else {
                                                        if (x[219] <= -0.8349999785423279) {
                                                            if (x[51] <= -0.8449999988079071) {
                                                                votes[4] += 1;
                                                            }

                                                            else {
                                                                votes[2] += 1;
                                                            }
                                                        }

                                                        else {
                                                            votes[2] += 1;
                                                        }
                                                    }
                                                }
                                            }

                                            else {
                                                if (x[26] <= 0.3799999952316284) {
                                                    if (x[125] <= 0.3499999940395355) {
                                                        votes[0] += 1;
                                                    }

                                                    else {
                                                        votes[2] += 1;
                                                    }
                                                }

                                                else {
                                                    votes[1] += 1;
                                                }
                                            }
                                        }
                                    }
                                }

                                else {
                                    if (x[119] <= 0.36500000953674316) {
                                        if (x[101] <= 0.45000001788139343) {
                                            if (x[241] <= -8.899999976158142) {
                                                votes[2] += 1;
                                            }

                                            else {
                                                votes[0] += 1;
                                            }
                                        }

                                        else {
                                            votes[1] += 1;
                                        }
                                    }

                                    else {
                                        votes[1] += 1;
                                    }
                                }
                            }

                            else {
                                votes[3] += 1;
                            }
                        }

                        // tree #9
                        if (x[209] <= 0.1850000023841858) {
                            if (x[16] <= -0.29500000178813934) {
                                if (x[89] <= 0.1550000011920929) {
                                    votes[0] += 1;
                                }

                                else {
                                    if (x[25] <= -0.08500000089406967) {
                                        votes[2] += 1;
                                    }

                                    else {
                                        votes[0] += 1;
                                    }
                                }
                            }

                            else {
                                if (x[202] <= -0.5149999856948853) {
                                    if (x[184] <= -0.11499999836087227) {
                                        if (x[208] <= -0.10000000894069672) {
                                            votes[2] += 1;
                                        }

                                        else {
                                            votes[0] += 1;
                                        }
                                    }

                                    else {
                                        votes[0] += 1;
                                    }
                                }

                                else {
                                    if (x[28] <= -0.5550000071525574) {
                                        if (x[101] <= 0.05999999865889549) {
                                            votes[0] += 1;
                                        }

                                        else {
                                            votes[2] += 1;
                                        }
                                    }

                                    else {
                                        if (x[194] <= 0.35999999940395355) {
                                            votes[0] += 1;
                                        }

                                        else {
                                            if (x[224] <= 0.1900000050663948) {
                                                votes[0] += 1;
                                            }

                                            else {
                                                votes[2] += 1;
                                            }
                                        }
                                    }
                                }
                            }
                        }

                        else {
                            if (x[241] <= -9.224999904632568) {
                                if (x[134] <= 0.4650000035762787) {
                                    if (x[225] <= -0.8349999785423279) {
                                        if (x[193] <= -0.22500000149011612) {
                                            if (x[71] <= 0.5250000059604645) {
                                                votes[2] += 1;
                                            }

                                            else {
                                                votes[1] += 1;
                                            }
                                        }

                                        else {
                                            if (x[96] <= -0.824999988079071) {
                                                if (x[106] <= -0.4049999937415123) {
                                                    votes[1] += 1;
                                                }

                                                else {
                                                    votes[4] += 1;
                                                }
                                            }

                                            else {
                                                if (x[8] <= 0.4599999934434891) {
                                                    if (x[21] <= -0.8449999988079071) {
                                                        votes[4] += 1;
                                                    }

                                                    else {
                                                        votes[2] += 1;
                                                    }
                                                }

                                                else {
                                                    votes[1] += 1;
                                                }
                                            }
                                        }
                                    }

                                    else {
                                        if (x[236] <= 0.574999988079071) {
                                            if (x[232] <= -0.1850000023841858) {
                                                votes[2] += 1;
                                            }

                                            else {
                                                if (x[207] <= -0.8550000190734863) {
                                                    votes[4] += 1;
                                                }

                                                else {
                                                    if (x[198] <= -0.8449999988079071) {
                                                        if (x[191] <= 0.24500000476837158) {
                                                            votes[2] += 1;
                                                        }

                                                        else {
                                                            votes[4] += 1;
                                                        }
                                                    }

                                                    else {
                                                        votes[2] += 1;
                                                    }
                                                }
                                            }
                                        }

                                        else {
                                            votes[1] += 1;
                                        }
                                    }
                                }

                                else {
                                    if (x[224] <= 0.36500000953674316) {
                                        if (x[169] <= -0.3499999940395355) {
                                            votes[2] += 1;
                                        }

                                        else {
                                            votes[1] += 1;
                                        }
                                    }

                                    else {
                                        votes[1] += 1;
                                    }
                                }
                            }

                            else {
                                if (x[35] <= 0.9300000071525574) {
                                    votes[0] += 1;
                                }

                                else {
                                    votes[3] += 1;
                                }
                            }
                        }

                        // tree #10
                        if (x[188] <= 0.19500000029802322) {
                            if (x[67] <= -0.2750000059604645) {
                                if (x[227] <= 0.1600000038743019) {
                                    votes[0] += 1;
                                }

                                else {
                                    if (x[45] <= -0.6899999976158142) {
                                        votes[2] += 1;
                                    }

                                    else {
                                        if (x[77] <= 0.4649999886751175) {
                                            votes[0] += 1;
                                        }

                                        else {
                                            votes[1] += 1;
                                        }
                                    }
                                }
                            }

                            else {
                                if (x[149] <= 0.26500000059604645) {
                                    if (x[103] <= -0.4749999940395355) {
                                        if (x[242] <= 12.125000238418579) {
                                            votes[0] += 1;
                                        }

                                        else {
                                            votes[2] += 1;
                                        }
                                    }

                                    else {
                                        if (x[109] <= -0.2849999964237213) {
                                            if (x[152] <= 0.26000000536441803) {
                                                if (x[97] <= -0.4649999886751175) {
                                                    if (x[221] <= 0.14499999582767487) {
                                                        votes[0] += 1;
                                                    }

                                                    else {
                                                        votes[2] += 1;
                                                    }
                                                }

                                                else {
                                                    votes[0] += 1;
                                                }
                                            }

                                            else {
                                                votes[2] += 1;
                                            }
                                        }

                                        else {
                                            votes[0] += 1;
                                        }
                                    }
                                }

                                else {
                                    if (x[184] <= -0.29999999701976776) {
                                        votes[2] += 1;
                                    }

                                    else {
                                        votes[0] += 1;
                                    }
                                }
                            }
                        }

                        else {
                            if (x[170] <= 0.4650000035762787) {
                                if (x[241] <= -19.774999618530273) {
                                    if (x[47] <= 0.5200000107288361) {
                                        votes[2] += 1;
                                    }

                                    else {
                                        if (x[76] <= -0.5649999976158142) {
                                            votes[2] += 1;
                                        }

                                        else {
                                            votes[1] += 1;
                                        }
                                    }
                                }

                                else {
                                    if (x[161] <= 0.22999999672174454) {
                                        votes[0] += 1;
                                    }

                                    else {
                                        if (x[110] <= 0.35500000417232513) {
                                            if (x[14] <= 0.19500000029802322) {
                                                votes[0] += 1;
                                            }

                                            else {
                                                votes[4] += 1;
                                            }
                                        }

                                        else {
                                            votes[1] += 1;
                                        }
                                    }
                                }
                            }

                            else {
                                if (x[16] <= -0.10500000044703484) {
                                    if (x[62] <= 0.36500000953674316) {
                                        if (x[139] <= -0.4050000011920929) {
                                            votes[2] += 1;
                                        }

                                        else {
                                            if (x[53] <= 0.2199999913573265) {
                                                votes[0] += 1;
                                            }

                                            else {
                                                votes[1] += 1;
                                            }
                                        }
                                    }

                                    else {
                                        if (x[71] <= 0.3200000077486038) {
                                            if (x[224] <= 0.6199999898672104) {
                                                votes[2] += 1;
                                            }

                                            else {
                                                votes[1] += 1;
                                            }
                                        }

                                        else {
                                            if (x[172] <= -0.0950000025331974) {
                                                votes[1] += 1;
                                            }

                                            else {
                                                if (x[241] <= -10.454999923706055) {
                                                    votes[1] += 1;
                                                }

                                                else {
                                                    votes[3] += 1;
                                                }
                                            }
                                        }
                                    }
                                }

                                else {
                                    if (x[242] <= 76.34499740600586) {
                                        if (x[92] <= 0.45499999821186066) {
                                            if (x[71] <= 0.1450000060722232) {
                                                votes[0] += 1;
                                            }

                                            else {
                                                votes[2] += 1;
                                            }
                                        }

                                        else {
                                            votes[1] += 1;
                                        }
                                    }

                                    else {
                                        votes[3] += 1;
                                    }
                                }
                            }
                        }

                        // tree #11
                        if (x[62] <= 0.1850000023841858) {
                            if (x[139] <= -0.2849999964237213) {
                                if (x[70] <= -0.26999999582767487) {
                                    if (x[100] <= -0.4350000023841858) {
                                        votes[1] += 1;
                                    }

                                    else {
                                        votes[2] += 1;
                                    }
                                }

                                else {
                                    if (x[58] <= -0.5699999928474426) {
                                        votes[2] += 1;
                                    }

                                    else {
                                        votes[0] += 1;
                                    }
                                }
                            }

                            else {
                                if (x[169] <= -0.4449999928474426) {
                                    if (x[238] <= -0.33500000089406967) {
                                        votes[2] += 1;
                                    }

                                    else {
                                        votes[0] += 1;
                                    }
                                }

                                else {
                                    if (x[205] <= -0.3050000071525574) {
                                        if (x[227] <= 0.2749999910593033) {
                                            if (x[55] <= -0.699999988079071) {
                                                votes[2] += 1;
                                            }

                                            else {
                                                votes[0] += 1;
                                            }
                                        }

                                        else {
                                            if (x[67] <= -0.13499999605119228) {
                                                votes[2] += 1;
                                            }

                                            else {
                                                votes[0] += 1;
                                            }
                                        }
                                    }

                                    else {
                                        if (x[37] <= -0.6399999856948853) {
                                            if (x[134] <= 0.2849999964237213) {
                                                votes[0] += 1;
                                            }

                                            else {
                                                votes[2] += 1;
                                            }
                                        }

                                        else {
                                            votes[0] += 1;
                                        }
                                    }
                                }
                            }
                        }

                        else {
                            if (x[77] <= 0.4749999940395355) {
                                if (x[177] <= -0.8349999785423279) {
                                    if (x[11] <= 0.26500000059604645) {
                                        if (x[240] <= -65.2400016784668) {
                                            if (x[242] <= 14.18999981880188) {
                                                votes[0] += 1;
                                            }

                                            else {
                                                votes[4] += 1;
                                            }
                                        }

                                        else {
                                            votes[2] += 1;
                                        }
                                    }

                                    else {
                                        if (x[42] <= -0.8349999785423279) {
                                            if (x[78] <= -0.8199999928474426) {
                                                if (x[207] <= -0.8100000023841858) {
                                                    votes[4] += 1;
                                                }

                                                else {
                                                    votes[0] += 1;
                                                }
                                            }

                                            else {
                                                if (x[114] <= -0.8449999988079071) {
                                                    if (x[39] <= -0.9899999797344208) {
                                                        votes[1] += 1;
                                                    }

                                                    else {
                                                        votes[0] += 1;
                                                    }
                                                }

                                                else {
                                                    votes[2] += 1;
                                                }
                                            }
                                        }

                                        else {
                                            if (x[36] <= -0.5250000059604645) {
                                                if (x[119] <= 0.1399999987334013) {
                                                    votes[0] += 1;
                                                }

                                                else {
                                                    if (x[96] <= -0.8349999785423279) {
                                                        if (x[69] <= -0.804999977350235) {
                                                            votes[4] += 1;
                                                        }

                                                        else {
                                                            votes[2] += 1;
                                                        }
                                                    }

                                                    else {
                                                        votes[2] += 1;
                                                    }
                                                }
                                            }

                                            else {
                                                votes[1] += 1;
                                            }
                                        }
                                    }
                                }

                                else {
                                    if (x[242] <= 11.754999876022339) {
                                        votes[0] += 1;
                                    }

                                    else {
                                        if (x[98] <= 0.4950000047683716) {
                                            if (x[90] <= -0.8449999988079071) {
                                                if (x[51] <= -0.8449999988079071) {
                                                    votes[4] += 1;
                                                }

                                                else {
                                                    if (x[124] <= -0.20000000298023224) {
                                                        votes[2] += 1;
                                                    }

                                                    else {
                                                        votes[4] += 1;
                                                    }
                                                }
                                            }

                                            else {
                                                if (x[234] <= -0.8449999988079071) {
                                                    if (x[240] <= -66.26000213623047) {
                                                        votes[4] += 1;
                                                    }

                                                    else {
                                                        votes[2] += 1;
                                                    }
                                                }

                                                else {
                                                    votes[2] += 1;
                                                }
                                            }
                                        }

                                        else {
                                            if (x[127] <= -0.5450000017881393) {
                                                votes[2] += 1;
                                            }

                                            else {
                                                votes[1] += 1;
                                            }
                                        }
                                    }
                                }
                            }

                            else {
                                if (x[241] <= -10.53499984741211) {
                                    if (x[240] <= -58.68499946594238) {
                                        votes[2] += 1;
                                    }

                                    else {
                                        votes[1] += 1;
                                    }
                                }

                                else {
                                    votes[3] += 1;
                                }
                            }
                        }

                        // tree #12
